encog,BasicNetwork,java,3.4.0,1,1586789550980
[BASIC]
[BASIC:PARAMS]
[BASIC:NETWORK]
beginTraining=0
connectionLimit=0
contextTargetOffset=0,0,0
contextTargetSize=0,0,0
endTraining=2
hasContext=f
inputCount=24
layerCounts=8,26,25
layerFeedCounts=8,25,24
layerContextCount=0,0,0
layerIndex=0,8,34
output=0,0.9988516169,0.0000035994,0.0000195341,0.0000002789,0.0000000001,0.0000000024,0.9050367491,0.0000002883,0.0826994136,0.205038463,0.6631197043,0.2751954127,0.0457392748,0,0,1,0.9994743561,0.8180221325,0.0000000003,0.1109357875,0.3181513421,0.337837019,0.0000446186,0.8185975909,0,0.0000000001,0.9999999999,1,0.676622569,0.7096884117,0.0076717823,0,1,0,0,0,1,0,1,0,0,0,0,0,0,0,0,0,0,0,0,0,0,0,0,0,1,1
outputCount=8
weightIndex=0,208,833
weights=1.7310590145,1.1486736877,5.4634481386,-0.5123110164,-0.8803477711,-0.4336428491,-5.9885740386,5.850834379,-0.7634362771,-34.1405339774,-2.4558086,1.5910552294,-13.4607138008,1.4439497276,0.2531714043,-0.0144867329,-0.3713086745,-11.2559355453,-0.8316774083,0.8929062672,1.3528126332,1.0345155907,-0.908904296,-0.907146278,-0.007718251,0.5439597342,1.2978527975,0.7246953006,-0.2874913775,0.7206229555,0.0818246312,-0.5298866316,-1.0576613442,-13.1522754715,-0.4975057166,0.9669047138,3.0446357187,-0.6557170637,-8.4023074929,-0.0618575855,-0.8342310913,-19.8248926531,1.6931600481,-0.6683497275,0.9203138401,3.1756302003,-0.2601481494,0.9059586684,0.2968864947,1.0223888379,-16.5427690442,-0.5668606526,-4.1995965303,0.0434447354,-6.8949750304,-0.9203795025,-1.8838050752,-7.6489261251,1.025041915,1.1726138922,-1.0345463493,-0.4528661235,0.7581908032,0.5383152329,0.8579730708,-1.8137573572,0.1510988829,0.3762343769,-0.627660365,0.8089644674,1.145378706,1.422920081,-2.0085536197,-3.2827699405,-7.6820857414,0.219598824,-0.450796358,0.4225864157,-13.4541701944,-0.0764416258,-0.5086518959,0.8223861004,0.3023652556,-0.539689882,-14.9584730058,0.0943093533,-0.012245357,-0.5118270701,1.1815752379,-1.7503780949,4.843839956,-0.7231332931,-0.6223569353,1.8765615722,2.0143668405,-0.7940834423,-0.1792785469,-16.9768747916,2.9249913246,-0.8287731797,1.8463360043,0.7536385599,-1.9895060121,-0.2288561952,0.3985150857,0.7741756045,0.6291783611,-0.3803219356,-0.7036064502,1.7852476354,3.2724941722,-7.6588945488,-0.2910369206,-6.9197033178,-0.752014452,0.6089071174,0.420823094,0.7625911702,0.1465587719,-0.7694452021,-7.311443862,1.9007198156,-2.9087072834,-0.5999727699,-0.8066165308,-0.5326332358,-0.4693953377,-3.5473743997,-17.0995357869,0.6745510274,0.2696985203,-16.6718279809,1.1079817085,-18.8005037582,0.4340626219,0.0778339906,0.0160271485,0.6905595788,-0.2501203011,1.4003607298,-16.3596518831,-5.5624700625,0.8288819853,-0.3713109052,0.9200833143,-0.9779429538,1.293065707,-2.4233359464,-4.4945716737,0.4853378778,0.1363857987,0.1568567752,-0.7790648573,0.6863786247,1.2804926711,0.8823736454,2.3551072902,0.7217478799,-0.0920212434,-0.1568639079,-0.0884787652,0.2522386508,0.8025027989,-0.7252216744,-0.3342791867,0.3237018175,-7.7381865723,0.454444131,-1.5687875346,-10.1253314065,-4.2835161341,-0.810954367,-0.241827462,0.8090011657,1.6740507443,-6.6142386413,-0.6742934877,-0.1323584275,-1.177552919,0.7977659324,3.1185467035,-0.1718217179,-13.5029246345,0.1782528329,-1.1313293292,0.7176943191,-0.4892629266,0.6550660397,-0.997368413,-12.5949792961,0.8185869289,1.9951222408,-0.3930072263,-5.7130679259,-0.8031242573,0.0350233998,-1.1430561585,-0.6900487485,-3.3710033243,-5.4952806713,-5.1214687661,2.3627957467,1.1481103108,-1.8196050653,0.7900382253,-15.3771152076,3.3540712926,0.1105195264,0.7539128455,-0.4830216206,6.9963848242,0.6875255616,6.1352888251,5.93120837,-7.475695681,-2.8864573829,-1.2728641038,-1.1280523176,-18.9655925269,-0.1030567812,-0.3760459874,0.907041548,2.4625934029,-0.6168612662,-0.4954726653,1.341514862,0.8302223617,19.2670827312,5.9008863833,-57.477181308,-50.5176684624,-20.896301524,-0.7818353993,0.5373102269,4.9252848702,6.9682515637,2.0605984382,14.9942329317,13.5049531351,-0.6275879205,-0.72579986,-0.680915572,0.0164159433,-18.9816284243,0.3939559144,0.5707306577,0.070515292,2.2535775256,-3.0662398066,-57.0068320022,-57.1946238395,3.0405194577,6.4270093925,2.4200121253,-0.2515428324,0.6737929567,-18.7418043056,0.7700300325,0.7980171844,4.8955044184,15.8924792122,-1.0738905021,-1.2132372904,-0.8116620594,-0.0141755489,-55.840759732,-57.0152969885,-0.6790515081,-1.218040843,4.9636635672,0.5700708294,0.6380553815,5.9164319444,2.3498206559,4.5462479847,18.3661812545,-0.6259266941,0.1182777606,-12.1251500499,-4.1435185444,-34.4774641824,0.311669568,0.218786847,-0.6826413556,1.6829745969,0.9914461846,-0.8107517634,45.2588081377,1.1869398718,-0.8930982973,-0.4952777383,-0.3268418935,0.0748717682,-0.5873076864,14.4972902193,0.6689762912,-1.8739488335,-2.5853727702,-19.309560137,-7.7651562694,-57.311996488,-0.9624549258,0.9165042517,-0.4793769117,1.5402552701,44.6462994894,-0.2399928228,0.541032576,0.0308449323,0.1538137953,0.0610621192,-0.7068237843,37.0823607429,1.1877777903,-3.0075377394,-19.0773519107,-6.6059386043,3.3954045921,45.5705871398,19.6815097815,-0.0824251502,-1.0995670596,-0.1541513924,-0.2282852011,32.4144220808,50.1505060831,0.3733741187,-0.2485103027,5.2664562209,-0.3467269802,-9.5825751426,-1.1092429044,-0.3401317484,-0.1380774171,-25.4711807758,-1.6417573776,-1.6244110146,-15.4883051213,-0.9442793899,-8.7651907354,-57.1477956897,-8.8606619894,-0.7861542105,0.9186061105,1.0571617559,4.684677288,4.4424149764,51.9745384252,0.3501843034,-0.2886346284,-0.4894762706,-0.398411884,19.658477237,17.4595682462,0.5907198988,30.8289232818,-0.2948510562,-0.1744381369,0.3037640026,-18.8440931611,-2.7534000642,0.446750995,-45.7363106362,-1.6058915512,0.7236796141,20.4377556211,2.4124785003,-0.8892333611,-42.1827261468,-27.8886879455,0.7881818077,19.8661667884,51.9224568012,-0.5115088558,-6.2202900712,-1.6716906015,-0.3946161444,6.1451933387,-0.0442035067,0.4078121991,-33.465508105,-56.5355621415,-0.5491530397,3.4804669567,26.2330906859,36.0603278047,-2.5563809043,-52.2523221719,-57.2633220042,6.9264420218,57.0209850227,57.6773475239,-2.7947922481,-0.655583767,-3.2023549626,-56.9319735212,-2.8160054452,-53.4343898027,3.1335685055,0.9457021195,19.2879725826,-0.4354209884,-1.8898294466,-6.945798725,-1.8038025954,-14.8240452863,-0.944818432,-0.2027996761,0.2585542122,1.1663554586,0.8822434392,-1.4551705659,0.4222396912,1.1340521795,0.1905488069,-19.2428281871,-0.9985714675,0.6507758832,-0.5825703082,18.8910462995,-0.3999515376,-0.2101619761,-1.4821624211,0.7749010295,0.3950954927,-1.1887655581,-1.314802533,-0.2999643617,-0.5655665732,1.2168375869,42.1490380151,25.3200346865,0.0670306491,-2.5822958628,-25.6424917506,-19.6259632229,0.3264934296,15.4483688841,2.7170788297,-1.5821573668,-9.256625226,-1.477675494,-1.7526855333,0.3390256932,12.8946223867,-0.5293994793,-56.8072539194,-52.4188555669,6.3283379022,19.8010188408,18.9766339862,0.4816170141,0.6411546025,5.9439067507,1.605713219,7.3416708862,4.4712809382,0.0355075983,-0.6798363495,0.7742640333,-0.4441473014,2.4198478383,49.3571703307,0.8054474474,1.2868500814,57.6933466798,3.0021384651,-0.0512517065,1.1336793952,-0.3994200884,0.3898796116,-1.0802637784,-0.5667472197,-7.5668730209,-6.6308447991,-20.238312353,0.1977824146,-8.0065093116,-16.0422630041,0.2174835762,0.5747122754,-0.8554584786,-0.8668324864,2.5485826719,7.0951593273,15.8159377007,-0.5965738193,-45.0880495693,-0.2929893386,0.4530701081,19.7635433006,0.3935463699,-0.916279108,-7.0032267588,-0.8117418357,0.2874114018,1.8543835027,16.9527440655,-1.1321765018,-54.3534175875,-54.392485031,0.2917215853,55.5778871056,0.2461674955,-0.7027526764,-43.1290113623,-20.9871454911,-0.0547802803,-0.8145001276,-25.5834256821,-37.0592775162,-1.2814072418,-19.036266943,-1.36989186,2.5906534218,56.9543150123,0.6110843009,0.3990176688,6.0341343765,0.6974306862,0.1894605442,18.4217119387,15.9453538567,18.6009908999,2.0093991665,18.9560479818,0.0803147915,-8.2680143235,-15.4593750464,-0.7155152177,-6.2662020703,0.0005118604,0.5695693211,1.2253749524,41.186634425,42.1581565187,-1.6074637244,5.6488168551,1.2065656281,-19.4673816181,-55.9527368966,-18.701620227,-0.2109970677,0.9246404829,-0.5944444301,1.120759342,16.8141850758,48.7495832087,0.3324537675,-0.0099847797,-0.4542851592,-1.363420632,-7.193371456,-2.4840880771,0.603585377,2.6029524252,0.5418617274,-0.9032441668,0.549402986,37.0362633295,36.9661250583,-0.6251851463,-0.9088926166,-0.7129215371,0.4895128155,5.8295688832,0.1355722549,-0.4075870831,3.7534959663,-0.3446726359,-2.3575711404,52.4664177624,17.0665572365,3.6631477045,4.4548625141,55.0962526899,-1.8093398845,-7.7887793956,-5.2517073706,-0.1978262146,-5.7017401884,0.6051286237,0.0600299263,1.3057746248,19.6563667252,17.9406231776,-0.9260572507,-18.9853506889,-8.6069880261,1.8323802588,55.10029521,10.4495640176,1.4700335379,1.1372929441,1.4082229441,-0.2787468373,-0.6058511787,-0.0728486593,-2.2897478917,-3.5023236319,-4.9379007406,0.1664435306,-0.4992644154,1.0477823358,0.1793847014,1.1230669849,0.1275501274,-0.6118204163,-0.2506999681,2.9682419039,-0.3379705438,0.9907892532,44.8338050273,1.9640516743,-1.3009264757,-1.7659633888,0.0919482494,1.4259023881,17.4852403027,1.4860885188,-1.0003447816,-21.6655379462,-53.0333374456,5.26499098,31.7819785874,7.0820616706,-1.2814659688,-1.2730432097,0.0992462006,-3.2116668444,-33.6976943458,-1.1950576704,-0.2529084539,-1.3313644207,-26.2193624958,-1.9064941074,-0.525902845,-6.1385952196,-1.0142441926,-0.9391038045,0.6707107676,1.3705497113,-5.9939786308,-18.2596264272,-3.1214692445,0.1702723436,19.2011639093,18.9515780973,-1.6505178534,-54.2493241897,-55.9101743991,2.9414481159,19.5648223567,0.7751877359,-1.0364983289,-14.4598208415,-57.3350765423,0.343878361,-0.4062727672,0.1655058387,0.5004333713,-0.7620127866,38.583960356,-2.3117165675,7.6987031378,56.8102584956,57.3035143307,-2.7193752055,-7.293552927,-4.2791547378,-54.1959463439,-17.4716443785,-18.5638130313,-7.6930311328,-54.4482839008,-54.3561293224,19.7304546489,21.1176972946,3.0015891345,-5.2173481187,-44.1253104453,-19.665600974,-0.2923348274,6.1745058676,1.1030208824,3.8180436467,2.9762267428,49.6878595162,1.3183464031,3.7740403318,57.3392786901,2.3964819498,-1.5941825783,-2.2951635409,-22.0040388188,-1.2545792501,-3.1609635617,-5.673013007,1.6745732613,1.7850067016,18.3169979838,-1.5775602211,-57.723635113,-1.6468742094,1.4967016534,17.0152425411,20.0258797625,-0.6964485261,-1.0036690032,18.9913871796,17.8663200217,-0.5866283196,-0.6347905835,0.9101455102,-1.1143678153,-2.6546559323,-0.2281971347,1.5764484415,1.9808977156,2.1602418898,-0.6992358053,-1.9791627914,-49.1337741132,-3.119359384,-0.8431928439,-0.5155945324,-0.1906294229,-2.7704259627,0.5464419114,1.5017763228,40.9357919645,56.1516179217,-0.5326830349,-1.0630751349,37.1085636713,44.7579725151,-0.1897380686,44.5514033123,1.851838146,-1.9935328033,-19.153131021,-2.0471849714,-0.7517868253,1.5213936342,-0.2410403542,0.2721069839,-1.4904015345,-0.0399558024,0.6497665106,0.9290103861,5.5261977306,0.0845983269,2.6683394672,0.2424901028,-4.3441036036,-11.5961982778,0.1420028457,-1.0658094689,-0.230894675,0.6475421528,-0.3825252461,0.4140899823,6.3905416286,-0.1336492293,-0.8612883465,-7.1956802883,-2.6117601496,1.3996231766,19.1103715727,3.8605246099,0.4495242485,0.4766651282,0.6525016983,0.4242061701,0.7471622958,-3.5619103279,-0.4229562385,-0.3000062217,-0.581390143,0.5519951175,41.2077673772,1.7533167052,-1.1398862299,-0.4438762088,-0.7589521728,-0.6248079164,2.473176172,41.0987126919,0.5891236037,0.1275179492,1.7356163764,19.6771893,-0.2009295667,45.5638343431,-0.9199048943,-2.091934653,-1.4074326908,-18.4802309422,2.5322726203,5.1913443778,5.719730342,0.9086903823,1.9886760683,1.7474101633,-5.1967710328,-51.1336764141,-8.2556941343,0.3308894018,-0.4130541794,-7.2232746614,0.3024336499,-3.3903843857,-52.0935269546,-57.4875631397,-0.7819524085,-3.9405750834,-1.0268257669,-1.5339905428,-2.6592647535,-1.455511393,-10.0983594822,-57.5942708579,-19.6267915903,0.792569798,2.3353418719,14.7495489838,0.799896721,10.4511896434,16.6067260197,3.2049399564,18.151952737,6.5046973182,-0.6514141621
biasActivation=0,1,1
[BASIC:ACTIVATION]
"org.encog.engine.network.activation.ActivationSigmoid"
"org.encog.engine.network.activation.ActivationSigmoid"
"org.encog.engine.network.activation.ActivationLinear"
