encog,BasicNetwork,java,3.4.0,1,1586799019857
[BASIC]
[BASIC:PARAMS]
[BASIC:NETWORK]
beginTraining=0
connectionLimit=0
contextTargetOffset=0,0,0
contextTargetSize=0,0,0
endTraining=2
hasContext=f
inputCount=8
layerCounts=8,33,9
layerFeedCounts=8,32,8
layerContextCount=0,0,0
layerIndex=0,8,41
output=0,0,0,0,0.9999947845,0.9999024874,0.2871159764,0,0,0.4239493019,0.5292545796,0.0000076275,0.3760698328,0.9846214674,0.0123202199,0.0006045636,0.9494823628,0,0.7662912189,0.5328714942,0.9291555631,0.0102357522,0.5705874598,0.9728736874,0.4633268343,0.0087230996,0.9316750446,0.0122695752,0.8996374606,0.9990452098,0.0441995967,0,0.0001379787,0.0003106932,0,0.983950997,0.7332504894,0.9988550791,0.0043805346,0.7215269741,1,0.1,0,0,0,0.4,0.3,0.2,0,1
outputCount=8
weightIndex=0,264,552
weights=-74.4129337791,-4.3042010429,-25.0868243767,-0.0804232871,-47.6049531602,0.129414618,-20.7361680024,-0.2321766397,0.8916512209,0.2475301137,-1.1226870708,-0.4563287306,-7.0500391465,0.0984158541,-0.049317327,0.3877086441,3.6518114999,-90.3621780079,4.3355849062,0.2740942688,0.3956424136,-0.4307400453,0.2263325602,-0.3142900254,-1.0429285169,-1.0189962638,-3.2377136834,-27.4547943369,0.9819244896,2.1492550682,0.9409006114,0.5991798003,-0.0125644447,-0.3459837763,2.0347087103,2.5278531323,-0.1253715815,-0.5972673754,0.6299921561,-43.7734419068,-1.3654491509,0.3897186006,-0.8265905983,-0.8155409873,-0.43839101,-0.6197591354,15.3904910236,-27.5426401796,7.7505802955,-3.1238650863,0.065577964,0.4336369713,1.893168666,2.6618726367,-7.5955489935,1.4993587865,0.0611997914,-0.2061681865,-0.0179308864,-1.1546342298,-0.9445770386,1.3093659359,-24.8005326327,6.2114170325,0.8476637954,-0.2081160122,-4.5047010286,-0.130919303,0.6914900534,13.5133440884,-0.7506803904,-1.0081187614,1.870932349,-0.6933155603,0.8516954133,-0.3228067224,-0.484669292,-0.0389162546,0.2352802943,1.029008307,5.3384569356,-9.6322698119,-21.967139755,-0.3688624334,-2.6593693216,-0.2932718751,-7.3662865781,-0.9401964995,-0.0855422719,0.0586458281,-2.5967606139,-0.5919318022,0.0083158546,-0.5228724741,1.0336254733,-0.4649646353,0.7613048509,1.2533872619,-0.7422125801,-0.1577316694,1.228952492,0.0725794965,-6.997452784,-9.1012706149,0.1921991886,0.5703688131,0.3042229141,-31.1323413296,0.3611562522,0.3950641499,6.5534767635,0.5362649134,-1.2488982609,0.6057895875,-4.067391917,16.8432829797,0.2453381996,1.2529216535,0.4256900914,-1.5599092668,-0.0726660665,-0.7374397001,-1.4447976154,-4.1485511612,0.5792340497,-0.0064388215,0.1040493174,-2.9551025333,-1.1455933979,-0.3764985005,2.7497304911,0.3690908815,-0.4513578345,-0.47450479,0.9443955892,-0.0081711294,-0.5299009789,0.6279628559,-0.2027896921,-12.3771322197,0.6668663892,-492.247219561,0.0939951363,-0.0857594859,1.1098193938,-0.0030799877,0.9243359743,1.1649172068,-1.0481375204,-1.6464248335,0.2746554019,0.0948420432,0.2024818561,6.8622142753,-0.1178532382,-1.277206716,1.3757068508,-86.8524657557,0.3014046273,1.2814127901,0.6517418043,0.6200478397,-11.7450902532,-0.0921483651,-0.898262924,0.3982782636,0.1880025234,-0.4928232024,-6.4247769958,1.1637179397,-2.8887894835,0.639161719,-0.1808505033,1.0242405958,-2.5784080674,13.9088502206,0.1559467735,3.1967871042,-0.6786145192,-6.3263360609,0.439109498,-0.2502667469,-1.3783922425,-0.4157963724,-21.8824423189,-0.9028369953,-0.5764706865,15.4234885586,0.2883863672,-119.9730601264,0.1890100639,-15.7886815614,0.5855819847,-0.4429244844,1.2685976218,0.9839717778,0.0682712729,0.2555605093,-3.0605098674,0.4866590251,0.7734230041,-0.2965480725,4.5227477843,1.055256374,0.2061704071,4.3160169787,0.9345267593,-1.720807818,0.5818475545,0.270059836,-0.1785558511,-0.9178969007,-0.2713875786,12.5063574136,0.1345976867,3.9676639636,-1.5703090149,-0.323160398,0.1292992148,-12.3284825515,-90.5205130752,-0.7456594009,-0.6940931332,-0.6730231063,-0.7094229833,0.3569049412,0.5008173089,0.4235292607,0.3916634546,-0.2720461565,-0.9593749777,-0.2177599684,-1.0836969941,-0.247624853,-0.2666785611,-0.7060177571,0.5604434278,-0.9691772687,-1.2488785605,1.0733597715,1.1319022744,-0.2392121666,-8.0373784337,1.1968079089,-0.9951006043,-0.6415164098,-28.0857412933,-0.1501213625,0.8589498256,0.5857542657,1.7831287258,-0.3578699578,0.2456880125,-0.3886195775,-0.4520112493,12.1087384019,0.4502103405,0.3082955069,0.1219454764,0.1052185554,0.5508816474,0.2325763545,-84.2414747744,0.2991493315,-1181.2553040121,4.313407797,-4.0835531272,0.1599265626,-0.965090864,1.6678282166,-9.6624580915,6.0439364805,0.7140756755,-8.8527050068,3.2681021159,0.1517654852,7.104256897,-0.5244279732,0.2735135054,3.2572469971,-13.4212636527,0.0549564418,-25.7777005513,3.9253320243,3.5778408232,-0.2854920892,6.8400382582,-2.3696213211,3.5786578004,-2.9779494762,-0.045938288,0.0626261022,-1.8950848005,21.53812629,-10.5504643106,-1.0631424766,-35.50593646,-0.2532339745,0.2801270863,-0.6623249714,-50.9556594023,-0.5193775651,0.3329809813,-18.3256734524,-0.6178056008,5.6718059768,16.1025824201,-0.4740081608,-0.0856336955,0.65919087,2.5117088073,-2.0374260939,0.253850202,7.0742960008,-7.4814401363,21.4462607378,0.9983308672,-0.7811728705,-43.5892495417,-20.3944624107,15.7864782411,3.2266951201,-0.8850443772,1.6624681352,0.2703416511,-2.1669421441,-0.2239827923,1.8306361617,-25.6519702179,-0.4412365045,1.3357429385,-35.064776834,0.0063889704,29.9790140488,-5.9439750776,0.4347286636,14.8414239044,1.0578207433,1.1109621979,-19.4688905715,0.8070951712,1.3942506449,2.8011383943,21.343304216,0.1481110958,0.8131487377,-0.6504451917,0.3803263901,-1.1572087629,-569.5607645752,-3.351427369,20.7135976631,2.9314679683,-0.6504754797,-24.3649632809,-2.7776419749,-1.613482089,-0.0358562022,-0.6550195728,13.9900941018,0.0118286371,-0.9098472186,-0.3134033367,0.3212458887,-7.6273910034,0.1097569586,9.0162209511,-0.8913875341,0.4337388315,-0.5257269519,-17.7838234368,0.431130069,-14.9851152541,-3.1817587109,0.0168281351,0.4931320246,2.6965805934,8.5383605553,-0.7076694521,2.7782073718,0.573694746,0.6684699447,3.3543491062,21.4070999859,-5.7072732602,0.3941266433,-10.4458270599,-8.1552133236,-10.4956128705,-0.0312869457,0.4847850431,-31.5499347121,39.9653335065,15.2596770817,13.3853286095,-13.3269817417,-4.6950754217,-5.6178481412,-0.1812519691,2.3297478575,3.5954081122,-5.486609876,-7.0086546229,4.5395340087,1.952344875,5.9055855913,-8.5716267749,-0.2358589154,9.1564470458,-7.1940938221,-17.0941317092,11.06612196,-2.613907245,-0.0285289816,0.6798813272,0.0203203797,-0.1444559459,-39.5528161255,3.5952098729,-0.8222310967,1.412922486,-6.3017565836,-2.3364243041,12.7932249455,3.006907987,-0.1147527245,25.5262716501,-0.935639779,-16.3694176573,3.0233959981,2.4624502749,-1.710849633,-3.7528782419,-0.6314519173,0.3389322739,6.7836541739,1.4093847121,-1.058252819,10.5753399955,-0.1178489573,-17.6538659257,-1.0247445251,6.4249405341,0.4815956763,14.1992897057,18.4732254086,-12.9653306763,-13.109077102,2.2344346117,-2.1615061679,4.1856032861,0.0143580879,-0.3091687852,-0.3659610295,-26.956677636,-2.5712135697,2.0424045747,21.6416202234,0.0016181047,-8.6983570618,0.9848560489,0.0721976801,1.1371546834,3.4317956367,0.8431234756,0.6124946428,0.7831358887,2.9503236359,-19.9458908587,0.2417662366,-0.3967221863,-0.5394677464,-1.5199642232,0.2530288014,-39.7388360633,-369.1682722993,-1.8331101585,0.0343076635,-0.0040022333,-0.3685929217,-11.5214189687,1.1324395168,0.0271167057,-0.5356449469,20.9294856225,-50.9073954458,-0.5152462005,23.9353131611,-0.7326580698,-2.7405489009,2.4817474666,0.3462127238,3.2293707038,-20.9269813256,1.4537028846,-0.3602429713,2.9948702332,0.2043913955,-97.2576431028,-90.8542653588,11.1756037852,3.272163409,2.6626242924,-129.5673189456,0.2487442521,2.2731636844,-0.5252258932,-36.8058535092,-5.0297888597,-1.502807298,-0.1396094145,15.5569314135,2.9893392889,0.3070722295,-0.1284609867,0.6155259184,19.5792697308,1.1452428897,17.2809322998,-8.4684556455,0.5131402993,-1.7483608326,0.128025441,0.228230869,-0.6531026112,18.5823905582,-11.6822524535,-0.4709631929,-7.9298856483,9.8129886707,2.0807843068,1.2291944346,1.7120236023,0.117765413,8.8141424921,0.7289956488,5.9301819354,-1.0887972119,-13.9012777855,1.4206985937,-3.7413635454,-0.6465519287,-0.4250343618,24.8753751921,0.3324455601,7.6769545503,12.9504324399,-0.7821386815,-0.0385512384,-5.104479209,-52.0856310172,-0.1901722696
biasActivation=0,1,1
[BASIC:ACTIVATION]
"org.encog.engine.network.activation.ActivationSigmoid"
"org.encog.engine.network.activation.ActivationSigmoid"
"org.encog.engine.network.activation.ActivationLinear"
